digraph Tree {
node [shape=box, fontname="helvetica"] ;
edge [fontname="helvetica"] ;
0 [label="x[2] <= 1.576\ngini = 0.667\nsamples = 149\nvalue = [49, 50, 50]"] ;
1 [label="gini = 0.0\nsamples = 36\nvalue = [36, 0, 0]"] ;
0 -> 1 [labeldistance=2.5, labelangle=45, headlabel="True"] ;
2 [label="x[2] <= 4.869\ngini = 0.595\nsamples = 113\nvalue = [13, 50, 50]"] ;
0 -> 2 [labeldistance=2.5, labelangle=-45, headlabel="False"] ;
3 [label="x[3] <= 0.891\ngini = 0.403\nsamples = 62\nvalue = [13, 46, 3]"] ;
2 -> 3 ;
4 [label="gini = 0.0\nsamples = 13\nvalue = [13, 0, 0]"] ;
3 -> 4 ;
5 [label="x[3] <= 1.579\ngini = 0.115\nsamples = 49\nvalue = [0, 46, 3]"] ;
3 -> 5 ;
6 [label="gini = 0.0\nsamples = 43\nvalue = [0, 43, 0]"] ;
5 -> 6 ;
7 [label="x[1] <= 3.199\ngini = 0.5\nsamples = 6\nvalue = [0, 3, 3]"] ;
5 -> 7 ;
8 [label="gini = 0.0\nsamples = 3\nvalue = [0, 0, 3]"] ;
7 -> 8 ;
9 [label="gini = 0.0\nsamples = 3\nvalue = [0, 3, 0]"] ;
7 -> 9 ;
10 [label="x[2] <= 4.989\ngini = 0.145\nsamples = 51\nvalue = [0, 4, 47]"] ;
2 -> 10 ;
11 [label="x[3] <= 1.612\ngini = 0.48\nsamples = 5\nvalue = [0, 2, 3]"] ;
10 -> 11 ;
12 [label="gini = 0.0\nsamples = 2\nvalue = [0, 2, 0]"] ;
11 -> 12 ;
13 [label="gini = 0.0\nsamples = 3\nvalue = [0, 0, 3]"] ;
11 -> 13 ;
14 [label="x[0] <= 6.935\ngini = 0.083\nsamples = 46\nvalue = [0, 2, 44]"] ;
10 -> 14 ;
15 [label="x[3] <= 2.361\ngini = 0.108\nsamples = 35\nvalue = [0, 2, 33]"] ;
14 -> 15 ;
16 [label="gini = 0.124\nsamples = 30\nvalue = [0, 2, 28]"] ;
15 -> 16 ;
17 [label="gini = 0.0\nsamples = 5\nvalue = [0, 0, 5]"] ;
15 -> 17 ;
18 [label="gini = 0.0\nsamples = 11\nvalue = [0, 0, 11]"] ;
14 -> 18 ;
}